<?xml version="1.0"?>
<opencv_storage>
<cascade>
  <stageType>BOOST</stageType>
  <featureType>LBP</featureType>
  <height>40</height>
  <width>80</width>
  <stageParams>
    <boostType>GAB</boostType>
    <minHitRate>9.9900001287460327e-01</minHitRate>
    <maxFalseAlarm>5.0000000000000000e-01</maxFalseAlarm>
    <weightTrimRate>9.4999999999999996e-01</weightTrimRate>
    <maxDepth>1</maxDepth>
    <maxWeakCount>100</maxWeakCount></stageParams>
  <featureParams>
    <maxCatCount>256</maxCatCount>
    <featSize>1</featSize></featureParams>
  <stageNum>20</stageNum>
  <stages>
    <!-- stage 0 -->
    <_>
      <maxWeakCount>3</maxWeakCount>
      <stageThreshold>-6.9491016864776611e-01</stageThreshold>
      <weakClassifiers>
        <_>
          <internalNodes>
            0 -1 123 36706304 330623116 -268677404 1973436416 134219484
            1885519868 -1758173956 -2147481584</internalNodes>
          <leafValues>
            -8.5299146175384521e-01 8.8571429252624512e-01</leafValues></_>
        <_>
          <internalNodes>
            0 -1 64 114240000 841002658 -2104548832 275834732 8334826
            606197745 74384894 -2134880850</internalNodes>
          <leafValues>
            -7.3394930362701416e-01 9.3442636728286743e-01</leafValues></_>
        <_>
          <internalNodes>
            0 -1 20 1342226818 -805306368 1073762432 -788496384
            268435456 411041792 402653824 -1466277886</internalNodes>
          <leafValues>
            -7.1611690521240234e-01 8.9203065633773804e-01</leafValues></_></weakClassifiers></_>
    <!-- stage 1 -->
    <_>
      <maxWeakCount>5</maxWeakCount>
      <stageThreshold>-7.4476873874664307e-01</stageThreshold>
      <weakClassifiers>
        <_>
          <internalNodes>
            0 -1 17 -800730672 -749681406 -847180791 1426423826
            1879072921 337641604 539298442 287771146</internalNodes>
          <leafValues>
            -8.0594056844711304e-01 7.3698627948760986e-01</leafValues></_>
        <_>
          <internalNodes>
            0 -1 8 -733572478 -1014849374 -1073672120 -1736064495
            -805206478 411076612 -385538304 -1143643646</internalNodes>
          <leafValues>
            -7.4318379163742065e-01 5.6095379590988159e-01</leafValues></_>
        <_>
          <internalNodes>
            0 -1 97 1357659658 1346258414 1878933027 -720984 1207631805
            394131312 -209772638 -206620913</internalNodes>
          <leafValues>
            -5.9192091226577759e-01 7.0788770914077759e-01</leafValues></_>
        <_>
          <internalNodes>
            0 -1 63 -1140863444 -542131673 -1476956502 -1426460802
            -268448612 184508402 -1030922802 -855834770</internalNodes>
          <leafValues>
            -5.4090332984924316e-01 7.5828754901885986e-01</leafValues></_>
        <_>
          <internalNodes>
            0 -1 128 -803744442 -1031753725 16793929 -1528684284
            1342277911 723779585 -934993146 -534254078</internalNodes>
          <leafValues>
            -6.6676628589630127e-01 6.6629362106323242e-01</leafValues></_></weakClassifiers></_>
    <!-- stage 2 -->
    <_>
      <maxWeakCount>5</maxWeakCount>
      <stageThreshold>-7.4288880825042725e-01</stageThreshold>
      <weakClassifiers>
        <_>
          <internalNodes>
            0 -1 5 -1 -537135105 -268435457 1138753278 -679544850
            1937370987 1362612927 1467364479</internalNodes>
          <leafValues>
            -6.0413080453872681e-01 7.3699706792831421e-01</leafValues></_>
        <_>
          <internalNodes>
            0 -1 23 1367628255 1402535939 1344966997 -1659895541
            1252526300 2002845832 405407919 957575791</internalNodes>
          <leafValues>
            -6.6925072669982910e-01 5.7492339611053467e-01</leafValues></_>
        <_>
          <internalNodes>
            0 -1 16 1880355547 -49209173 369353627 -749625191
            -1820012421 -2138406776 -494618484 1523937967</internalNodes>
          <leafValues>
            -6.3489943742752075e-01 6.1211472749710083e-01</leafValues></_>
        <_>
          <internalNodes>
            0 -1 131 1427231739 1383990210 167776727 1669546831
            -184399161 -1419771902 -527715703 2106321355</internalNodes>
          <leafValues>
            -6.6241037845611572e-01 6.2324184179306030e-01</leafValues></_>
        <_>
          <internalNodes>
            0 -1 29 -1996447267 -1152347647 272711711 -1090187244
            134260972 -2120086912 -2147342120 696453336</internalNodes>
          <leafValues>
            -6.6338574886322021e-01 6.4510911703109741e-01</leafValues></_></weakClassifiers></_>
    <!-- stage 3 -->
    <_>
      <maxWeakCount>5</maxWeakCount>
      <stageThreshold>-7.0984613895416260e-01</stageThreshold>
      <weakClassifiers>
        <_>
          <internalNodes>
            0 -1 15 -67313665 2142961663 -139265 -1141113025 1198999031
            -556632073 2147370408 2136413999</internalNodes>
          <leafValues>
            -5.2079868316650391e-01 7.1371370553970337e-01</leafValues></_>
        <_>
          <internalNodes>
            0 -1 69 -2070400835 -539682379 -1710914465 2143361357
            1124895211 -1159060476 -1432841044 746588672</internalNodes>
          <leafValues>
            -6.4666563272476196e-01 5.5541032552719116e-01</leafValues></_>
        <_>
          <internalNodes>
            0 -1 50 -2103036693 1367359640 -1475567212 -377214848
            1883789482 -1970728944 -939062584 -1432140086</internalNodes>
          <leafValues>
            -6.5177577733993530e-01 5.2850610017776489e-01</leafValues></_>
        <_>
          <internalNodes>
            0 -1 76 -214183029 17039616 534656 763593016 -662664805
            214434442 -2111683090 685365386</internalNodes>
          <leafValues>
            -6.9062834978103638e-01 5.7916772365570068e-01</leafValues></_>
        <_>
          <internalNodes>
            0 -1 1 -498745025 364089474 1109741651 -599554749 1109167
            -771223266 134451287 -731156217</internalNodes>
          <leafValues>
            -5.8233553171157837e-01 6.5846741199493408e-01</leafValues></_></weakClassifiers></_>
    <!-- stage 4 -->
    <_>
      <maxWeakCount>4</maxWeakCount>
      <stageThreshold>-2.6411288976669312e-01</stageThreshold>
      <weakClassifiers>
        <_>
          <internalNodes>
            0 -1 28 1126099743 -606854241 -2063380141 -718036399
            426180789 583174153 310968456 555950610</internalNodes>
          <leafValues>
            -7.4695861339569092e-01 5.9461730718612671e-01</leafValues></_>
        <_>
          <internalNodes>
            0 -1 94 538003684 269090854 268484610 819605568 16777394
            -1735917566 -1933404632 -121990695</internalNodes>
          <leafValues>
            -6.6928684711456299e-01 5.1193147897720337e-01</leafValues></_>
        <_>
          <internalNodes>
            0 -1 106 201601544 339738658 -2040508132 -715063011
            405824142 1083187656 -1366806390 -745289584</internalNodes>
          <leafValues>
            -6.4393693208694458e-01 5.2902477979660034e-01</leafValues></_>
        <_>
          <internalNodes>
            0 -1 101 1574057122 586317565 1828677154 -1686352468
            -289532108 -1351155713 -285421612 -1113800020</internalNodes>
          <leafValues>
            -5.5811053514480591e-01 6.4611381292343140e-01</leafValues></_></weakClassifiers></_>
    <!-- stage 5 -->
    <_>
      <maxWeakCount>5</maxWeakCount>
      <stageThreshold>-8.1707042455673218e-01</stageThreshold>
      <weakClassifiers>
        <_>
          <internalNodes>
            0 -1 10 -687356820 -645840575 16810188 285245448 1073872896
            -1173880447 1101021290 553869315</internalNodes>
          <leafValues>
            -7.6863753795623779e-01 5.7720893621444702e-01</leafValues></_>
        <_>
          <internalNodes>
            0 -1 27 -585903871 325158658 -2130705408 956915968 141672842
            142737541 -1249859893 1391188523</internalNodes>
          <leafValues>
            -6.1249184608459473e-01 5.2696579694747925e-01</leafValues></_>
        <_>
          <internalNodes>
            0 -1 53 -754728290 -363702514 84934674 -2130526208
            -1073212488 -1207697211 1461846251 -879796090</internalNodes>
          <leafValues>
            -5.5443298816680908e-01 5.7572090625762939e-01</leafValues></_>
        <_>
          <internalNodes>
            0 -1 51 327814214 402669568 17875292 -1314715647 -1054285682
            419496224 -1409179510 -926092607</internalNodes>
          <leafValues>
            -5.6211662292480469e-01 5.5072885751724243e-01</leafValues></_>
        <_>
          <internalNodes>
            0 -1 12 -503135730 553812226 -2147450791 1166213122
            1073973459 134217792 163971 -796138221</internalNodes>
          <leafValues>
            -5.6239080429077148e-01 5.5262392759323120e-01</leafValues></_></weakClassifiers></_>
    <!-- stage 6 -->
    <_>
      <maxWeakCount>6</maxWeakCount>
      <stageThreshold>-3.0673065781593323e-01</stageThreshold>
      <weakClassifiers>
        <_>
          <internalNodes>
            0 -1 0 1441923007 2063433705 2147483646 -352321594
            -621084737 1733787583 -343277641 1887436119</internalNodes>
          <leafValues>
            -5.6126481294631958e-01 6.2522852420806885e-01</leafValues></_>
        <_>
          <internalNodes>
            0 -1 25 -1714319106 -1790377726 -1072606975 1493270784
            -2147433830 -805272955 -1577019222 2080910</internalNodes>
          <leafValues>
            -6.0369163751602173e-01 4.8913580179214478e-01</leafValues></_>
        <_>
          <internalNodes>
            0 -1 60 -2143150885 -263925630 285491609 -612361416
            1217953992 -1564343030 1346552290 -1427437174</internalNodes>
          <leafValues>
            -6.6505295038223267e-01 4.4673398137092590e-01</leafValues></_>
        <_>
          <internalNodes>
            0 -1 130 1371624263 -1849311229 1611792585 -817159679
            -255488822 2113 -1874749282 1506656911</internalNodes>
          <leafValues>
            -5.8691573143005371e-01 5.1943147182464600e-01</leafValues></_>
        <_>
          <internalNodes>
            0 -1 66 285334531 956563728 276861265 1498251521 570986905
            -66870646 134776971 -1918794236</internalNodes>
          <leafValues>
            -5.1313358545303345e-01 6.0280972719192505e-01</leafValues></_>
        <_>
          <internalNodes>
            0 -1 75 -1140772500 -872414704 1342216477 -821018288
            297829352 -880672374 -1070448413 -850945536</internalNodes>
          <leafValues>
            -6.8763351440429688e-01 4.3164551258087158e-01</leafValues></_></weakClassifiers></_>
    <!-- stage 7 -->
    <_>
      <maxWeakCount>7</maxWeakCount>
      <stageThreshold>-7.5163954496383667e-01</stageThreshold>
      <weakClassifiers>
        <_>
          <internalNodes>
            0 -1 19 -267661505 1883668807 155190744 -364376048
            1107505152 1916144688 -2099164640 1992813223</internalNodes>
          <leafValues>
            -7.6393443346023560e-01 4.8880308866500854e-01</leafValues></_>
        <_>
          <internalNodes>
            0 -1 73 654576928 -1274015676 1900351808 -603877188
            -1744266482 2130739881 -912652069 -1027046769</internalNodes>
          <leafValues>
            -5.8146983385086060e-01 4.7543907165527344e-01</leafValues></_>
        <_>
          <internalNodes>
            0 -1 107 4767960 -394264564 167858201 -494436350 71401472
            -1030749944 15442304 -358438369</internalNodes>
          <leafValues>
            -5.9699797630310059e-01 4.9048182368278503e-01</leafValues></_>
        <_>
          <internalNodes>
            0 -1 36 -1634759123 -697340151 1056960511 -548967091
            475401381 -648573769 745848572 -119541874</internalNodes>
          <leafValues>
            -4.2669185996055603e-01 7.2580343484878540e-01</leafValues></_>
        <_>
          <internalNodes>
            0 -1 127 -1056544512 -107937791 -2012935803 -536035068
            -2079694842 -83721200 -1039496566 -1569734001</internalNodes>
          <leafValues>
            -5.2914094924926758e-01 5.6991803646087646e-01</leafValues></_>
        <_>
          <internalNodes>
            0 -1 124 -1640787280 1483508462 1526650496 1454751359
            -267536 -1896382729 -168232994 -69712856</internalNodes>
          <leafValues>
            -5.2945816516876221e-01 6.2641954421997070e-01</leafValues></_>
        <_>
          <internalNodes>
            0 -1 105 805442654 318981268 -1743759092 870223949
            -805269077 1284511145 -427783772 -2016335836</internalNodes>
          <leafValues>
            -6.5295326709747314e-01 4.8951491713523865e-01</leafValues></_></weakClassifiers></_>
    <!-- stage 8 -->
    <_>
      <maxWeakCount>7</maxWeakCount>
      <stageThreshold>-8.1298577785491943e-01</stageThreshold>
      <weakClassifiers>
        <_>
          <internalNodes>
            0 -1 21 1107816823 1443500567 -989756400 -557039151
            345507515 473573970 1434517640 822301491</internalNodes>
          <leafValues>
            -7.1676301956176758e-01 5.1674640178680420e-01</leafValues></_>
        <_>
          <internalNodes>
            0 -1 44 -1332281135 -148503800 -2147286400 -2054306800
            -74806624 -653131704 -1542878324 -1064375417</internalNodes>
          <leafValues>
            -5.2700388431549072e-01 5.1027667522430420e-01</leafValues></_>
        <_>
          <internalNodes>
            0 -1 70 -1405860295 1027691349 -16842763 2146549717
            208915675 -1644302483 -822305732 -2011003579</internalNodes>
          <leafValues>
            -4.3260461091995239e-01 6.3576519489288330e-01</leafValues></_>
        <_>
          <internalNodes>
            0 -1 100 344363613 -657256366 -1727785640 -930050022
            -2112880383 -1366745086 -1995960166 -22511461</internalNodes>
          <leafValues>
            -5.2330940961837769e-01 5.1839590072631836e-01</leafValues></_>
        <_>
          <internalNodes>
            0 -1 56 -1214961714 -870182858 -2097116480 392380425
            -981463157 -2136997888 -1941305238 -876703576</internalNodes>
          <leafValues>
            -6.0127049684524536e-01 4.4915735721588135e-01</leafValues></_>
        <_>
          <internalNodes>
            0 -1 129 -267529461 -2130673262 16793673 -1475278975
            17334280 -1065189266 1094486688 -1049374201</internalNodes>
          <leafValues>
            -5.5409842729568481e-01 5.1370239257812500e-01</leafValues></_>
        <_>
          <internalNodes>
            0 -1 40 1362351859 729848000 -2122219177 814547456
            -2147483494 562598273 209836219 1534582923</internalNodes>
          <leafValues>
            -6.1344516277313232e-01 4.8053750395774841e-01</leafValues></_></weakClassifiers></_>
    <!-- stage 9 -->
    <_>
      <maxWeakCount>6</maxWeakCount>
      <stageThreshold>-1.0553029775619507e+00</stageThreshold>
      <weakClassifiers>
        <_>
          <internalNodes>
            0 -1 32 854821105 -249118463 138510992 -2145845247
            -1741946523 160975104 -1893332704 33333648</internalNodes>
          <leafValues>
            -7.0121949911117554e-01 4.9528300762176514e-01</leafValues></_>
        <_>
          <internalNodes>
            0 -1 108 -783157362 -1315987424 71643136 612769994
            1879098256 773914689 422674462 696906143</internalNodes>
          <leafValues>
            -5.9392517805099487e-01 4.0815910696983337e-01</leafValues></_>
        <_>
          <internalNodes>
            0 -1 86 343941338 1124645256 815010499 -595034011 1879450126
            950567101 285596067 -103810802</internalNodes>
          <leafValues>
            -5.5364125967025757e-01 4.9944666028022766e-01</leafValues></_>
        <_>
          <internalNodes>
            0 -1 78 -67641971 -1615880709 -1342492939 -1078231049
            -1359000356 1828712444 -285249564 -1929379910</internalNodes>
          <leafValues>
            -4.3569830060005188e-01 6.0379272699356079e-01</leafValues></_>
        <_>
          <internalNodes>
            0 -1 121 302908040 -723571675 -688252055 -637574032
            511487131 -1368054307 1059372458 -1334274818</internalNodes>
          <leafValues>
            -4.7275555133819580e-01 6.0556787252426147e-01</leafValues></_>
        <_>
          <internalNodes>
            0 -1 68 420962775 -787332856 184619074 2100060160
            -1943895558 -1173612911 139100569 1478625313</internalNodes>
          <leafValues>
            -5.3405678272247314e-01 5.1615363359451294e-01</leafValues></_></weakClassifiers></_>
    <!-- stage 10 -->
    <_>
      <maxWeakCount>7</maxWeakCount>
      <stageThreshold>-7.6014524698257446e-01</stageThreshold>
      <weakClassifiers>
        <_>
          <internalNodes>
            0 -1 47 285259257 184582272 814028949 983044176 12722309
            663355521 167780571 468932495</internalNodes>
          <leafValues>
            -6.5921789407730103e-01 5.1207727193832397e-01</leafValues></_>
        <_>
          <internalNodes>
            0 -1 31 204496369 -1086640669 -1090535747 -579346436
            402649855 -34013216 78888876 -16378479</internalNodes>
          <leafValues>
            -3.8468390703201294e-01 6.1609953641891479e-01</leafValues></_>
        <_>
          <internalNodes>
            0 -1 104 57103319 -482037215 1747096714 1284018183 274798619
            1765859329 -1404071702 -1460543436</internalNodes>
          <leafValues>
            -5.4087555408477783e-01 4.7586432099342346e-01</leafValues></_>
        <_>
          <internalNodes>
            0 -1 93 -1190939394 -1679014702 -1521286456 -108492534
            1484982431 1744879873 -393721233 1671686917</internalNodes>
          <leafValues>
            -5.1590871810913086e-01 5.1265329122543335e-01</leafValues></_>
        <_>
          <internalNodes>
            0 -1 13 -448035153 1093632000 1350587599 -58507254
            -1329285105 1073750049 -1912266745 -485497941</internalNodes>
          <leafValues>
            -5.3821122646331787e-01 5.2508753538131714e-01</leafValues></_>
        <_>
          <internalNodes>
            0 -1 82 -714647702 -1802104516 35243072 1315892 -472170486
            -1065336678 -1736172150 -2115705970</internalNodes>
          <leafValues>
            -6.2882012128829956e-01 4.7338774800300598e-01</leafValues></_>
        <_>
          <internalNodes>
            0 -1 110 4358338 -1839978542 100733401 2094155080 553717154
            562180097 -1115117821 -368957374</internalNodes>
          <leafValues>
            -5.8507210016250610e-01 4.7826221585273743e-01</leafValues></_></weakClassifiers></_>
    <!-- stage 11 -->
    <_>
      <maxWeakCount>8</maxWeakCount>
      <stageThreshold>-5.1473957300186157e-01</stageThreshold>
      <weakClassifiers>
        <_>
          <internalNodes>
            0 -1 62 -1990636016 957492268 -989804370 280334340
            -970292818 1489504288 -2067363666 143166176</internalNodes>
          <leafValues>
            -6.1772853136062622e-01 5.0282484292984009e-01</leafValues></_>
        <_>
          <internalNodes>
            0 -1 33 -765669057 2013692197 159399937 -1123974071 68578447
            642001421 707262920 554570697</internalNodes>
          <leafValues>
            -6.8058556318283081e-01 3.7886890769004822e-01</leafValues></_>
        <_>
          <internalNodes>
            0 -1 115 1907544158 28361814 -1543052122 -1139834109
            1095417898 -520044544 1509950090 -579853775</internalNodes>
          <leafValues>
            -5.5075001716613770e-01 4.5708864927291870e-01</leafValues></_>
        <_>
          <internalNodes>
            0 -1 2 -2144107873 334528528 4233 -1050574832 554697295
            53387 8479241 -705693157</internalNodes>
          <leafValues>
            -4.9694302678108215e-01 5.3152960538864136e-01</leafValues></_>
        <_>
          <internalNodes>
            0 -1 65 121715423 -2145124210 -532674560 999930587
            1749093275 -610598209 85989771 -901199228</internalNodes>
          <leafValues>
            -5.7130289077758789e-01 4.6215990185737610e-01</leafValues></_>
        <_>
          <internalNodes>
            0 -1 24 -780555937 -1870556662 -2139045493 1241776257
            -1073688434 -133685120 2122849246 1562444363</internalNodes>
          <leafValues>
            -6.8766546249389648e-01 3.7965616583824158e-01</leafValues></_>
        <_>
          <internalNodes>
            0 -1 89 1128949056 1563444160 -1255997238 -1147617267
            403847169 578916520 1476528090 -574965013</internalNodes>
          <leafValues>
            -5.4509919881820679e-01 5.1876360177993774e-01</leafValues></_>
        <_>
          <internalNodes>
            0 -1 85 -529859301 49176360 -453166042 932129634 1065285503
            2112752781 920559100 -426256785</internalNodes>
          <leafValues>
            -5.2775228023529053e-01 5.5604672431945801e-01</leafValues></_></weakClassifiers></_>
    <!-- stage 12 -->
    <_>
      <maxWeakCount>6</maxWeakCount>
      <stageThreshold>-5.4518938064575195e-01</stageThreshold>
      <weakClassifiers>
        <_>
          <internalNodes>
            0 -1 35 537860603 168961168 84036887 2098201 1096894545
            2121600130 277856456 1884029040</internalNodes>
          <leafValues>
            -7.2185432910919189e-01 4.7611710429191589e-01</leafValues></_>
        <_>
          <internalNodes>
            0 -1 39 285367504 -1610248181 -1929379659 -1478504413
            -1861551928 -659011414 -931035976 12640295</internalNodes>
          <leafValues>
            -6.1550211906433105e-01 3.9537715911865234e-01</leafValues></_>
        <_>
          <internalNodes>
            0 -1 90 -2120302128 -1337048124 67390464 1967186974
            -1031763704 -2116025919 2023489927 -1622949561</internalNodes>
          <leafValues>
            -4.9862784147262573e-01 5.1361924409866333e-01</leafValues></_>
        <_>
          <internalNodes>
            0 -1 58 86118421 453070872 122754899 488636561 559240
            -1878917119 -770924401 -1727823863</internalNodes>
          <leafValues>
            -4.8881039023399353e-01 5.7802861928939819e-01</leafValues></_>
        <_>
          <internalNodes>
            0 -1 109 418392080 -1866825292 403227024 2036204363
            1082233757 -2099673015 1359040184 -15505136</internalNodes>
          <leafValues>
            -5.6490200757980347e-01 4.7152844071388245e-01</leafValues></_>
        <_>
          <internalNodes>
            0 -1 111 1121218330 44729984 49569 -1501559672 -1557124832
            -1735325688 1797013646 -705640448</internalNodes>
          <leafValues>
            -7.6964139938354492e-01 3.7455400824546814e-01</leafValues></_></weakClassifiers></_>
    <!-- stage 13 -->
    <_>
      <maxWeakCount>9</maxWeakCount>
      <stageThreshold>-1.0200215578079224e+00</stageThreshold>
      <weakClassifiers>
        <_>
          <internalNodes>
            0 -1 3 1517729783 -268453889 1098874863 -587202821 -33554633
            1845460830 -779747338 1341646751</internalNodes>
          <leafValues>
            -4.7094187140464783e-01 5.7674843072891235e-01</leafValues></_>
        <_>
          <internalNodes>
            0 -1 77 1930548183 444890370 1359545872 1707479308 547086523
            1216479409 -2136899405 1084572503</internalNodes>
          <leafValues>
            -5.9945744276046753e-01 4.2016443610191345e-01</leafValues></_>
        <_>
          <internalNodes>
            0 -1 55 -2071749421 9061599 -2119958312 897699848
            -1068056424 -578239916 -2011085687 -1984770944</internalNodes>
          <leafValues>
            -5.4968315362930298e-01 4.6010816097259521e-01</leafValues></_>
        <_>
          <internalNodes>
            0 -1 87 -938215544 362808337 1636093952 231065092 1073823810
            -1996488699 688046535 1037431771</internalNodes>
          <leafValues>
            -5.4059392213821411e-01 4.8842710256576538e-01</leafValues></_>
        <_>
          <internalNodes>
            0 -1 102 2124953304 847678498 -2130308845 -1404713697
            1493275338 -1725333496 1226942858 -1110096350</internalNodes>
          <leafValues>
            -5.6747728586196899e-01 4.5790427923202515e-01</leafValues></_>
        <_>
          <internalNodes>
            0 -1 61 106119726 -1002127224 168984 -22986181 -2113646587
            -1096792191 -92026619 1304111370</internalNodes>
          <leafValues>
            -6.7017698287963867e-01 3.8924005627632141e-01</leafValues></_>
        <_>
          <internalNodes>
            0 -1 6 76129179 -1744333549 -2147483565 -1828388863
            939561097 -2120056824 285409335 -663395773</internalNodes>
          <leafValues>
            -5.4826581478118896e-01 4.9968194961547852e-01</leafValues></_>
        <_>
          <internalNodes>
            0 -1 116 841099898 1034946290 737571835 -1649383440
            -1250607665 -704806917 1072807606 -1629430030</internalNodes>
          <leafValues>
            -5.1586824655532837e-01 5.4184037446975708e-01</leafValues></_>
        <_>
          <internalNodes>
            0 -1 42 1434696415 1099370770 419467289 55312408 -2111798599
            98312 1138862 1398900227</internalNodes>
          <leafValues>
            -7.2240334749221802e-01 3.9771863818168640e-01</leafValues></_></weakClassifiers></_>
    <!-- stage 14 -->
    <_>
      <maxWeakCount>8</maxWeakCount>
      <stageThreshold>-1.1126852035522461e+00</stageThreshold>
      <weakClassifiers>
        <_>
          <internalNodes>
            0 -1 22 1608440787 2142961151 -6145 -1212850177 2146899019
            1996453719 -570599463 1998815167</internalNodes>
          <leafValues>
            -4.7526881098747253e-01 5.4713654518127441e-01</leafValues></_>
        <_>
          <internalNodes>
            0 -1 119 -1739217848 -1873800187 1128271879 1552701640
            -1340512239 -660424574 -1945941841 -1535062351</internalNodes>
          <leafValues>
            -4.8754689097404480e-01 4.7639012336730957e-01</leafValues></_>
        <_>
          <internalNodes>
            0 -1 125 -240529022 -2113828976 21053440 923404372
            -1073637245 -1946140664 42011808 1552793763</internalNodes>
          <leafValues>
            -5.5586725473403931e-01 4.3057888746261597e-01</leafValues></_>
        <_>
          <internalNodes>
            0 -1 46 1040165768 2145251042 -18 1063579390 -16964
            -286477200 -85123137 -370279189</internalNodes>
          <leafValues>
            -3.9575102925300598e-01 6.8810188770294189e-01</leafValues></_>
        <_>
          <internalNodes>
            0 -1 48 -803505921 -1190848365 -2063531468 596322121
            -1467935352 790303179 -1374680630 -1057958114</internalNodes>
          <leafValues>
            -5.6409811973571777e-01 4.6324878931045532e-01</leafValues></_>
        <_>
          <internalNodes>
            0 -1 88 1541668607 430702063 -521143298 -202719489
            -1342439425 -1393655826 218073079 -1331600346</internalNodes>
          <leafValues>
            -4.4326999783515930e-01 6.0011786222457886e-01</leafValues></_>
        <_>
          <internalNodes>
            0 -1 83 -1290764124 148182328 -2114844344 -1899101758
            536880786 -72286063 13298492 -84176727</internalNodes>
          <leafValues>
            -5.8806353807449341e-01 4.5859071612358093e-01</leafValues></_>
        <_>
          <internalNodes>
            0 -1 67 1367560949 1444024336 75602177 1494495312
            -1845192506 1789397648 553817211 941944928</internalNodes>
          <leafValues>
            -6.8930763006210327e-01 4.1083809733390808e-01</leafValues></_></weakClassifiers></_>
    <!-- stage 15 -->
    <_>
      <maxWeakCount>8</maxWeakCount>
      <stageThreshold>-6.1629199981689453e-01</stageThreshold>
      <weakClassifiers>
        <_>
          <internalNodes>
            0 -1 18 1515438487 1110605833 6149 -1031815017 1208615233
            2230274 -1433608124 1740997287</internalNodes>
          <leafValues>
            -6.8421053886413574e-01 4.8629599809646606e-01</leafValues></_>
        <_>
          <internalNodes>
            0 -1 41 1881650173 -1325301534 67117195 -108979987
            -1727823125 2057308300 886955 570460337</internalNodes>
          <leafValues>
            -5.2229243516921997e-01 4.2785692214965820e-01</leafValues></_>
        <_>
          <internalNodes>
            0 -1 54 -8212 179240889 911553256 -950009933 -83910946
            -1912668933 83094781 -391976016</internalNodes>
          <leafValues>
            -4.2224904894828796e-01 5.7147204875946045e-01</leafValues></_>
        <_>
          <internalNodes>
            0 -1 7 -683180011 -1862221419 201380177 1166140632
            -1866448694 -671078094 1216368683 1752855307</internalNodes>
          <leafValues>
            -6.1194401979446411e-01 4.3383446335792542e-01</leafValues></_>
        <_>
          <internalNodes>
            0 -1 38 -1285619317 -237828325 1183957077 -341195774
            1231460617 1040733187 -132036220 1084901548</internalNodes>
          <leafValues>
            -6.0621893405914307e-01 4.0251672267913818e-01</leafValues></_>
        <_>
          <internalNodes>
            0 -1 52 340688038 353075466 152045718 1830957444 -703463266
            -1633674368 -1912030837 -2138445551</internalNodes>
          <leafValues>
            -5.6617921590805054e-01 4.3971469998359680e-01</leafValues></_>
        <_>
          <internalNodes>
            0 -1 81 -1539357474 -2042322794 -1760913403 -1696983036
            1082145053 2080410637 -1514623446 -1597813662</internalNodes>
          <leafValues>
            -6.5941327810287476e-01 3.8754522800445557e-01</leafValues></_>
        <_>
          <internalNodes>
            0 -1 92 1376844457 269747216 470417666 -31436782 302024098
            -2135392240 1082654856 -1246783346</internalNodes>
          <leafValues>
            -5.9328651428222656e-01 4.5155191421508789e-01</leafValues></_></weakClassifiers></_>
    <!-- stage 16 -->
    <_>
      <maxWeakCount>7</maxWeakCount>
      <stageThreshold>-5.6842559576034546e-01</stageThreshold>
      <weakClassifiers>
        <_>
          <internalNodes>
            0 -1 114 -663764600 16916488 266256 -2079752191 -1068396376
            587204641 270139520 168943762</internalNodes>
          <leafValues>
            -6.3692307472229004e-01 4.7607842087745667e-01</leafValues></_>
        <_>
          <internalNodes>
            0 -1 98 -1879085127 -72450188 2113716181 -344346 268435319
            2130523644 -1476474986 -352846618</internalNodes>
          <leafValues>
            -4.1788744926452637e-01 5.9297043085098267e-01</leafValues></_>
        <_>
          <internalNodes>
            0 -1 34 -1996486455 -211517435 1161830400 -1048542075
            -1249639384 961219075 -1430255442 1140556692</internalNodes>
          <leafValues>
            -6.4856833219528198e-01 3.6097127199172974e-01</leafValues></_>
        <_>
          <internalNodes>
            0 -1 117 2075386768 -704923 909586229 2035793725 532037582
            -295190701 -1627398961 -481431969</internalNodes>
          <leafValues>
            -3.2967689633369446e-01 7.3235756158828735e-01</leafValues></_>
        <_>
          <internalNodes>
            0 -1 74 1653449229 -1824308480 -1844445066 -1693351599
            713226398 2032762881 -129424414 -1404175605</internalNodes>
          <leafValues>
            -4.4800990819931030e-01 5.7907944917678833e-01</leafValues></_>
        <_>
          <internalNodes>
            0 -1 91 1012356334 76359968 1702988189 1871852419 818941922
            848597004 -1878942970 -74204945</internalNodes>
          <leafValues>
            -5.1802176237106323e-01 4.8803034424781799e-01</leafValues></_>
        <_>
          <internalNodes>
            0 -1 95 39826114 209992011 285274 -1272702603 2039516215
            -1740602688 -2134854125 -1562999631</internalNodes>
          <leafValues>
            -6.1201924085617065e-01 4.1187968850135803e-01</leafValues></_></weakClassifiers></_>
    <!-- stage 17 -->
    <_>
      <maxWeakCount>8</maxWeakCount>
      <stageThreshold>-8.3332240581512451e-01</stageThreshold>
      <weakClassifiers>
        <_>
          <internalNodes>
            0 -1 80 265770570 -17830205 -545263894 -1729713357
            -1342196224 -268972815 -813711611 -1535218635</internalNodes>
          <leafValues>
            -4.7272726893424988e-01 5.2413791418075562e-01</leafValues></_>
        <_>
          <internalNodes>
            0 -1 118 -877597296 -30806473 -1083032073 -709370114
            247307994 -1658847809 -1208090914 -397404968</internalNodes>
          <leafValues>
            -3.4612774848937988e-01 5.9737586975097656e-01</leafValues></_>
        <_>
          <internalNodes>
            0 -1 30 454643159 -1743780672 267528 1904287752 184566008
            948748673 -2013200228 -190094333</internalNodes>
          <leafValues>
            -4.9191659688949585e-01 4.5593860745429993e-01</leafValues></_>
        <_>
          <internalNodes>
            0 -1 45 -931348483 234853292 -386598932 -235621068
            -269746211 1827102686 -269090819 -1070404402</internalNodes>
          <leafValues>
            -3.7409809231758118e-01 6.4063090085983276e-01</leafValues></_>
        <_>
          <internalNodes>
            0 -1 84 1897123283 -1756133823 -720824868 1527558288
            -1878877797 -1332952936 -1727477202 354615425</internalNodes>
          <leafValues>
            -5.1570594310760498e-01 4.8513874411582947e-01</leafValues></_>
        <_>
          <internalNodes>
            0 -1 122 2066666746 1575690170 -419526705 1970143213
            788000508 1169620340 1979667932 -186785921</internalNodes>
          <leafValues>
            -4.0775692462921143e-01 6.4027202129364014e-01</leafValues></_>
        <_>
          <internalNodes>
            0 -1 72 -1993130318 -1593835426 -1862007803 285016064
            420095170 886735217 -1206155207 -259028693</internalNodes>
          <leafValues>
            -5.4241830110549927e-01 5.0913161039352417e-01</leafValues></_>
        <_>
          <internalNodes>
            0 -1 9 -736966520 1367523584 134365194 1342507392
            -1069349805 -938964990 -1610465272 -129764765</internalNodes>
          <leafValues>
            -6.2813663482666016e-01 4.5269092917442322e-01</leafValues></_></weakClassifiers></_>
    <!-- stage 18 -->
    <_>
      <maxWeakCount>9</maxWeakCount>
      <stageThreshold>-1.1111304759979248e+00</stageThreshold>
      <weakClassifiers>
        <_>
          <internalNodes>
            0 -1 103 -1738004694 12607492 -748539584 871760566 466292635
            513771665 -1065244544 28333104</internalNodes>
          <leafValues>
            -7.1228069067001343e-01 4.5855513215065002e-01</leafValues></_>
        <_>
          <internalNodes>
            0 -1 4 -909979073 369246605 -1719533565 -779026048
            1078010043 -1433254854 100798575 -763428859</internalNodes>
          <leafValues>
            -4.4565719366073608e-01 4.6369186043739319e-01</leafValues></_>
        <_>
          <internalNodes>
            0 -1 126 -162467672 -2080319798 738201666 -1606249910
            -2147464960 2032730945 1900642824 -2071223669</internalNodes>
          <leafValues>
            -6.7863887548446655e-01 3.6563709378242493e-01</leafValues></_>
        <_>
          <internalNodes>
            0 -1 57 -1183638083 283553781 -1829433345 1624276477
            1869607932 -278567049 -50642946 -1400183564</internalNodes>
          <leafValues>
            -4.7272226214408875e-01 5.0159728527069092e-01</leafValues></_>
        <_>
          <internalNodes>
            0 -1 59 -1321915617 1662058769 1560681141 1564561409
            -2143680293 209829993 808345839 369152256</internalNodes>
          <leafValues>
            -5.9770274162292480e-01 4.1226580739021301e-01</leafValues></_>
        <_>
          <internalNodes>
            0 -1 26 2067835039 -1943994351 -2097068971 -489078767
            948568555 1589377 2056022927 16793834</internalNodes>
          <leafValues>
            -6.6708087921142578e-01 3.5023796558380127e-01</leafValues></_>
        <_>
          <internalNodes>
            0 -1 49 -1878575650 352429224 273685172 -1651603062
            537117375 -217552768 -1342135678 -1001545084</internalNodes>
          <leafValues>
            -5.3345680236816406e-01 4.8404410481452942e-01</leafValues></_>
        <_>
          <internalNodes>
            0 -1 37 1104380551 -1827429503 -1321204220 -376307568
            -1036023639 1276133913 -515731292 465910587</internalNodes>
          <leafValues>
            -5.6578189134597778e-01 4.9019318819046021e-01</leafValues></_>
        <_>
          <internalNodes>
            0 -1 113 -1568009902 13140224 1444937889 -1794111078
            1095149579 -1462730102 -395965509 -108488256</internalNodes>
          <leafValues>
            -5.4528135061264038e-01 4.9585384130477905e-01</leafValues></_></weakClassifiers></_>
    <!-- stage 19 -->
    <_>
      <maxWeakCount>9</maxWeakCount>
      <stageThreshold>-6.3391119241714478e-01</stageThreshold>
      <weakClassifiers>
        <_>
          <internalNodes>
            0 -1 120 -599534554 201666657 268452042 807571593 687939658
            983980171 335655626 71704830</internalNodes>
          <leafValues>
            -6.0335195064544678e-01 4.9597424268722534e-01</leafValues></_>
        <_>
          <internalNodes>
            0 -1 11 774802173 -1175453761 -343932929 -1140884036
            -1758068993 1186463355 -948570881 -1374334685</internalNodes>
          <leafValues>
            -3.7351596355438232e-01 5.5663108825683594e-01</leafValues></_>
        <_>
          <internalNodes>
            0 -1 79 109397766 -493856877 1344096 -128966648 1191267373
            1932562576 -1954017496 -843857914</internalNodes>
          <leafValues>
            -6.2800949811935425e-01 3.7023073434829712e-01</leafValues></_>
        <_>
          <internalNodes>
            0 -1 99 -629365186 989361889 -1569313273 -1148453214
            276078484 -1073807362 -1526887348 -3211266</internalNodes>
          <leafValues>
            -4.0275835990905762e-01 5.9676438570022583e-01</leafValues></_>
        <_>
          <internalNodes>
            0 -1 112 -1694829366 -537919754 -1125122099 -1211138078
            1308093419 -814262285 -1881815092 -842871182</internalNodes>
          <leafValues>
            -4.3979716300964355e-01 5.8058065176010132e-01</leafValues></_>
        <_>
          <internalNodes>
            0 -1 43 -1014319330 526533971 -997552104 654580289 755669902
            -1117454332 -394221172 -2138717726</internalNodes>
          <leafValues>
            -5.1525032520294189e-01 4.8161464929580688e-01</leafValues></_>
        <_>
          <internalNodes>
            0 -1 96 -1957215057 285676352 1098970435 -1509256960
            1209868954 -1901559136 -316519219 -208611303</internalNodes>
          <leafValues>
            -5.0885546207427979e-01 5.1816594600677490e-01</leafValues></_>
        <_>
          <internalNodes>
            0 -1 71 2013449370 1397819155 16779570 1581519013
            -1207680894 1782596617 906505930 549790341</internalNodes>
          <leafValues>
            -6.9489729404449463e-01 3.9932289719581604e-01</leafValues></_>
        <_>
          <internalNodes>
            0 -1 14 -771505009 -2019457662 16793749 1090748688
            1353613355 1101045769 167903395 -749482425</internalNodes>
          <leafValues>
            -4.9205359816551208e-01 5.3847467899322510e-01</leafValues></_></weakClassifiers></_></stages>
  <features>
    <_>
      <rect>
        0 0 2 3</rect></_>
    <_>
      <rect>
        0 0 8 8</rect></_>
    <_>
      <rect>
        0 8 7 10</rect></_>
    <_>
      <rect>
        1 30 1 2</rect></_>
    <_>
      <rect>
        3 1 8 5</rect></_>
    <_>
      <rect>
        4 0 22 13</rect></_>
    <_>
      <rect>
        4 1 6 7</rect></_>
    <_>
      <rect>
        4 1 17 13</rect></_>
    <_>
      <rect>
        9 0 9 12</rect></_>
    <_>
      <rect>
        9 13 8 9</rect></_>
    <_>
      <rect>
        10 16 12 8</rect></_>
    <_>
      <rect>
        11 0 4 7</rect></_>
    <_>
      <rect>
        13 1 5 7</rect></_>
    <_>
      <rect>
        13 11 4 5</rect></_>
    <_>
      <rect>
        14 10 4 5</rect></_>
    <_>
      <rect>
        15 4 13 12</rect></_>
    <_>
      <rect>
        16 0 1 1</rect></_>
    <_>
      <rect>
        16 0 17 13</rect></_>
    <_>
      <rect>
        16 9 12 7</rect></_>
    <_>
      <rect>
        16 10 12 5</rect></_>
    <_>
      <rect>
        16 13 6 6</rect></_>
    <_>
      <rect>
        17 14 14 6</rect></_>
    <_>
      <rect>
        19 6 9 11</rect></_>
    <_>
      <rect>
        20 13 8 9</rect></_>
    <_>
      <rect>
        20 28 1 1</rect></_>
    <_>
      <rect>
        21 0 17 9</rect></_>
    <_>
      <rect>
        21 35 2 1</rect></_>
    <_>
      <rect>
        22 10 16 9</rect></_>
    <_>
      <rect>
        23 1 8 13</rect></_>
    <_>
      <rect>
        24 2 11 10</rect></_>
    <_>
      <rect>
        24 18 11 5</rect></_>
    <_>
      <rect>
        25 0 6 3</rect></_>
    <_>
      <rect>
        25 11 8 6</rect></_>
    <_>
      <rect>
        26 1 11 12</rect></_>
    <_>
      <rect>
        26 11 8 7</rect></_>
    <_>
      <rect>
        26 11 11 6</rect></_>
    <_>
      <rect>
        27 9 7 4</rect></_>
    <_>
      <rect>
        27 9 9 8</rect></_>
    <_>
      <rect>
        27 13 8 5</rect></_>
    <_>
      <rect>
        27 16 6 4</rect></_>
    <_>
      <rect>
        27 16 11 7</rect></_>
    <_>
      <rect>
        27 34 1 1</rect></_>
    <_>
      <rect>
        28 2 1 1</rect></_>
    <_>
      <rect>
        28 12 5 4</rect></_>
    <_>
      <rect>
        28 14 6 4</rect></_>
    <_>
      <rect>
        29 19 3 3</rect></_>
    <_>
      <rect>
        30 12 3 5</rect></_>
    <_>
      <rect>
        30 13 9 9</rect></_>
    <_>
      <rect>
        30 15 6 5</rect></_>
    <_>
      <rect>
        30 17 3 3</rect></_>
    <_>
      <rect>
        31 8 6 8</rect></_>
    <_>
      <rect>
        31 11 4 4</rect></_>
    <_>
      <rect>
        31 16 3 2</rect></_>
    <_>
      <rect>
        31 16 6 4</rect></_>
    <_>
      <rect>
        31 18 4 4</rect></_>
    <_>
      <rect>
        31 19 4 4</rect></_>
    <_>
      <rect>
        31 20 5 3</rect></_>
    <_>
      <rect>
        31 23 2 2</rect></_>
    <_>
      <rect>
        31 31 7 3</rect></_>
    <_>
      <rect>
        32 0 4 2</rect></_>
    <_>
      <rect>
        32 5 5 10</rect></_>
    <_>
      <rect>
        32 14 5 3</rect></_>
    <_>
      <rect>
        32 15 3 3</rect></_>
    <_>
      <rect>
        32 15 4 4</rect></_>
    <_>
      <rect>
        32 17 3 1</rect></_>
    <_>
      <rect>
        32 19 5 3</rect></_>
    <_>
      <rect>
        32 28 9 4</rect></_>
    <_>
      <rect>
        33 0 2 1</rect></_>
    <_>
      <rect>
        33 0 4 2</rect></_>
    <_>
      <rect>
        33 0 5 5</rect></_>
    <_>
      <rect>
        33 0 7 3</rect></_>
    <_>
      <rect>
        33 0 10 7</rect></_>
    <_>
      <rect>
        33 14 2 2</rect></_>
    <_>
      <rect>
        33 15 3 2</rect></_>
    <_>
      <rect>
        34 6 3 4</rect></_>
    <_>
      <rect>
        34 10 6 5</rect></_>
    <_>
      <rect>
        34 10 12 10</rect></_>
    <_>
      <rect>
        34 11 9 6</rect></_>
    <_>
      <rect>
        35 13 3 6</rect></_>
    <_>
      <rect>
        35 14 5 4</rect></_>
    <_>
      <rect>
        35 15 3 3</rect></_>
    <_>
      <rect>
        35 16 5 4</rect></_>
    <_>
      <rect>
        35 17 3 3</rect></_>
    <_>
      <rect>
        35 19 2 1</rect></_>
    <_>
      <rect>
        35 35 2 1</rect></_>
    <_>
      <rect>
        36 11 2 3</rect></_>
    <_>
      <rect>
        36 11 3 4</rect></_>
    <_>
      <rect>
        36 13 10 9</rect></_>
    <_>
      <rect>
        36 14 7 6</rect></_>
    <_>
      <rect>
        36 15 2 2</rect></_>
    <_>
      <rect>
        36 16 2 3</rect></_>
    <_>
      <rect>
        36 16 3 2</rect></_>
    <_>
      <rect>
        36 17 3 1</rect></_>
    <_>
      <rect>
        36 17 5 4</rect></_>
    <_>
      <rect>
        36 19 2 1</rect></_>
    <_>
      <rect>
        36 19 2 2</rect></_>
    <_>
      <rect>
        36 22 4 2</rect></_>
    <_>
      <rect>
        37 13 3 3</rect></_>
    <_>
      <rect>
        37 17 3 3</rect></_>
    <_>
      <rect>
        37 19 1 1</rect></_>
    <_>
      <rect>
        37 19 2 1</rect></_>
    <_>
      <rect>
        37 20 1 1</rect></_>
    <_>
      <rect>
        38 10 5 6</rect></_>
    <_>
      <rect>
        38 13 4 4</rect></_>
    <_>
      <rect>
        38 14 3 5</rect></_>
    <_>
      <rect>
        38 15 4 3</rect></_>
    <_>
      <rect>
        38 15 5 2</rect></_>
    <_>
      <rect>
        38 19 1 1</rect></_>
    <_>
      <rect>
        39 5 9 11</rect></_>
    <_>
      <rect>
        39 15 2 2</rect></_>
    <_>
      <rect>
        39 16 2 1</rect></_>
    <_>
      <rect>
        39 19 3 2</rect></_>
    <_>
      <rect>
        40 17 2 1</rect></_>
    <_>
      <rect>
        40 22 1 1</rect></_>
    <_>
      <rect>
        41 4 9 12</rect></_>
    <_>
      <rect>
        41 11 5 6</rect></_>
    <_>
      <rect>
        41 15 2 1</rect></_>
    <_>
      <rect>
        42 9 4 4</rect></_>
    <_>
      <rect>
        42 24 1 1</rect></_>
    <_>
      <rect>
        43 19 2 1</rect></_>
    <_>
      <rect>
        44 4 6 8</rect></_>
    <_>
      <rect>
        44 12 1 1</rect></_>
    <_>
      <rect>
        44 13 4 5</rect></_>
    <_>
      <rect>
        44 17 1 2</rect></_>
    <_>
      <rect>
        44 22 1 1</rect></_>
    <_>
      <rect>
        46 13 7 9</rect></_>
    <_>
      <rect>
        48 8 7 7</rect></_>
    <_>
      <rect>
        50 0 6 6</rect></_>
    <_>
      <rect>
        53 1 5 7</rect></_>
    <_>
      <rect>
        55 13 4 6</rect></_>
    <_>
      <rect>
        71 11 1 2</rect></_>
    <_>
      <rect>
        74 35 1 1</rect></_></features></cascade>
</opencv_storage>
