<?xml version="1.0"?>
<opencv_storage>
<stage15>
  <maxWeakCount>8</maxWeakCount>
  <stageThreshold>-6.1629199981689453e-01</stageThreshold>
  <weakClassifiers>
    <_>
      <internalNodes>
        0 -1 101381 1515438487 1110605833 6149 -1031815017 1208615233
        2230274 -1433608124 1740997287</internalNodes>
      <leafValues>
        -6.8421053886413574e-01 4.8629599809646606e-01</leafValues></_>
    <_>
      <internalNodes>
        0 -1 158775 1881650173 -1325301534 67117195 -108979987
        -1727823125 2057308300 886955 570460337</internalNodes>
      <leafValues>
        -5.2229243516921997e-01 4.2785692214965820e-01</leafValues></_>
    <_>
      <internalNodes>
        0 -1 174812 -8212 179240889 911553256 -950009933 -83910946
        -1912668933 83094781 -391976016</internalNodes>
      <leafValues>
        -4.2224904894828796e-01 5.7147204875946045e-01</leafValues></_>
    <_>
      <internalNodes>
        0 -1 27325 -683180011 -1862221419 201380177 1166140632
        -1866448694 -671078094 1216368683 1752855307</internalNodes>
      <leafValues>
        -6.1194401979446411e-01 4.3383446335792542e-01</leafValues></_>
    <_>
      <internalNodes>
        0 -1 156938 -1285619317 -237828325 1183957077 -341195774
        1231460617 1040733187 -132036220 1084901548</internalNodes>
      <leafValues>
        -6.0621893405914307e-01 4.0251672267913818e-01</leafValues></_>
    <_>
      <internalNodes>
        0 -1 174565 340688038 353075466 152045718 1830957444 -703463266
        -1633674368 -1912030837 -2138445551</internalNodes>
      <leafValues>
        -5.6617921590805054e-01 4.3971469998359680e-01</leafValues></_>
    <_>
      <internalNodes>
        0 -1 190535 -1539357474 -2042322794 -1760913403 -1696983036
        1082145053 2080410637 -1514623446 -1597813662</internalNodes>
      <leafValues>
        -6.5941327810287476e-01 3.8754522800445557e-01</leafValues></_>
    <_>
      <internalNodes>
        0 -1 194358 1376844457 269747216 470417666 -31436782 302024098
        -2135392240 1082654856 -1246783346</internalNodes>
      <leafValues>
        -5.9328651428222656e-01 4.5155191421508789e-01</leafValues></_></weakClassifiers></stage15>
</opencv_storage>
