<?xml version="1.0"?>
<opencv_storage>
<stage16>
  <maxWeakCount>7</maxWeakCount>
  <stageThreshold>-5.6842559576034546e-01</stageThreshold>
  <weakClassifiers>
    <_>
      <internalNodes>
        0 -1 210317 -663764600 16916488 266256 -2079752191 -1068396376
        587204641 270139520 168943762</internalNodes>
      <leafValues>
        -6.3692307472229004e-01 4.7607842087745667e-01</leafValues></_>
    <_>
      <internalNodes>
        0 -1 198000 -1879085127 -72450188 2113716181 -344346 268435319
        2130523644 -1476474986 -352846618</internalNodes>
      <leafValues>
        -4.1788744926452637e-01 5.9297043085098267e-01</leafValues></_>
    <_>
      <internalNodes>
        0 -1 152079 -1996486455 -211517435 1161830400 -1048542075
        -1249639384 961219075 -1430255442 1140556692</internalNodes>
      <leafValues>
        -6.4856833219528198e-01 3.6097127199172974e-01</leafValues></_>
    <_>
      <internalNodes>
        0 -1 214233 2075386768 -704923 909586229 2035793725 532037582
        -295190701 -1627398961 -481431969</internalNodes>
      <leafValues>
        -3.2967689633369446e-01 7.3235756158828735e-01</leafValues></_>
    <_>
      <internalNodes>
        0 -1 185200 1653449229 -1824308480 -1844445066 -1693351599
        713226398 2032762881 -129424414 -1404175605</internalNodes>
      <leafValues>
        -4.4800990819931030e-01 5.7907944917678833e-01</leafValues></_>
    <_>
      <internalNodes>
        0 -1 194249 1012356334 76359968 1702988189 1871852419 818941922
        848597004 -1878942970 -74204945</internalNodes>
      <leafValues>
        -5.1802176237106323e-01 4.8803034424781799e-01</leafValues></_>
    <_>
      <internalNodes>
        0 -1 194548 39826114 209992011 285274 -1272702603 2039516215
        -1740602688 -2134854125 -1562999631</internalNodes>
      <leafValues>
        -6.1201924085617065e-01 4.1187968850135803e-01</leafValues></_></weakClassifiers></stage16>
</opencv_storage>
