<?xml version="1.0"?>
<opencv_storage>
<stage10>
  <maxWeakCount>7</maxWeakCount>
  <stageThreshold>-7.6014524698257446e-01</stageThreshold>
  <weakClassifiers>
    <_>
      <internalNodes>
        0 -1 170068 285259257 184582272 814028949 983044176 12722309
        663355521 167780571 468932495</internalNodes>
      <leafValues>
        -6.5921789407730103e-01 5.1207727193832397e-01</leafValues></_>
    <_>
      <internalNodes>
        0 -1 145147 204496369 -1086640669 -1090535747 -579346436
        402649855 -34013216 78888876 -16378479</internalNodes>
      <leafValues>
        -3.8468390703201294e-01 6.1609953641891479e-01</leafValues></_>
    <_>
      <internalNodes>
        0 -1 201308 57103319 -482037215 1747096714 1284018183 274798619
        1765859329 -1404071702 -1460543436</internalNodes>
      <leafValues>
        -5.4087555408477783e-01 4.7586432099342346e-01</leafValues></_>
    <_>
      <internalNodes>
        0 -1 194375 -1190939394 -1679014702 -1521286456 -108492534
        1484982431 1744879873 -393721233 1671686917</internalNodes>
      <leafValues>
        -5.1590871810913086e-01 5.1265329122543335e-01</leafValues></_>
    <_>
      <internalNodes>
        0 -1 84941 -448035153 1093632000 1350587599 -58507254
        -1329285105 1073750049 -1912266745 -485497941</internalNodes>
      <leafValues>
        -5.3821122646331787e-01 5.2508753538131714e-01</leafValues></_>
    <_>
      <internalNodes>
        0 -1 190636 -714647702 -1802104516 35243072 1315892 -472170486
        -1065336678 -1736172150 -2115705970</internalNodes>
      <leafValues>
        -6.2882012128829956e-01 4.7338774800300598e-01</leafValues></_>
    <_>
      <internalNodes>
        0 -1 204992 4358338 -1839978542 100733401 2094155080 553717154
        562180097 -1115117821 -368957374</internalNodes>
      <leafValues>
        -5.8507210016250610e-01 4.7826221585273743e-01</leafValues></_></weakClassifiers></stage10>
</opencv_storage>
