<?xml version="1.0"?>
<opencv_storage>
<stage12>
  <maxWeakCount>6</maxWeakCount>
  <stageThreshold>-5.4518938064575195e-01</stageThreshold>
  <weakClassifiers>
    <_>
      <internalNodes>
        0 -1 152105 537860603 168961168 84036887 2098201 1096894545
        2121600130 277856456 1884029040</internalNodes>
      <leafValues>
        -7.2185432910919189e-01 4.7611710429191589e-01</leafValues></_>
    <_>
      <internalNodes>
        0 -1 157339 285367504 -1610248181 -1929379659 -1478504413
        -1861551928 -659011414 -931035976 12640295</internalNodes>
      <leafValues>
        -6.1550211906433105e-01 3.9537715911865234e-01</leafValues></_>
    <_>
      <internalNodes>
        0 -1 194242 -2120302128 -1337048124 67390464 1967186974
        -1031763704 -2116025919 2023489927 -1622949561</internalNodes>
      <leafValues>
        -4.9862784147262573e-01 5.1361924409866333e-01</leafValues></_>
    <_>
      <internalNodes>
        0 -1 175848 86118421 453070872 122754899 488636561 559240
        -1878917119 -770924401 -1727823863</internalNodes>
      <leafValues>
        -4.8881039023399353e-01 5.7802861928939819e-01</leafValues></_>
    <_>
      <internalNodes>
        0 -1 204889 418392080 -1866825292 403227024 2036204363
        1082233757 -2099673015 1359040184 -15505136</internalNodes>
      <leafValues>
        -5.6490200757980347e-01 4.7152844071388245e-01</leafValues></_>
    <_>
      <internalNodes>
        0 -1 205285 1121218330 44729984 49569 -1501559672 -1557124832
        -1735325688 1797013646 -705640448</internalNodes>
      <leafValues>
        -7.6964139938354492e-01 3.7455400824546814e-01</leafValues></_></weakClassifiers></stage12>
</opencv_storage>
