<?xml version="1.0"?>
<opencv_storage>
<stage7>
  <maxWeakCount>7</maxWeakCount>
  <stageThreshold>-7.5163954496383667e-01</stageThreshold>
  <weakClassifiers>
    <_>
      <internalNodes>
        0 -1 101589 -267661505 1883668807 155190744 -364376048
        1107505152 1916144688 -2099164640 1992813223</internalNodes>
      <leafValues>
        -7.6393443346023560e-01 4.8880308866500854e-01</leafValues></_>
    <_>
      <internalNodes>
        0 -1 182597 654576928 -1274015676 1900351808 -603877188
        -1744266482 2130739881 -912652069 -1027046769</internalNodes>
      <leafValues>
        -5.8146983385086060e-01 4.7543907165527344e-01</leafValues></_>
    <_>
      <internalNodes>
        0 -1 201820 4767960 -394264564 167858201 -494436350 71401472
        -1030749944 15442304 -358438369</internalNodes>
      <leafValues>
        -5.9699797630310059e-01 4.9048182368278503e-01</leafValues></_>
    <_>
      <internalNodes>
        0 -1 156288 -1634759123 -697340151 1056960511 -548967091
        475401381 -648573769 745848572 -119541874</internalNodes>
      <leafValues>
        -4.2669185996055603e-01 7.2580343484878540e-01</leafValues></_>
    <_>
      <internalNodes>
        0 -1 236150 -1056544512 -107937791 -2012935803 -536035068
        -2079694842 -83721200 -1039496566 -1569734001</internalNodes>
      <leafValues>
        -5.2914094924926758e-01 5.6991803646087646e-01</leafValues></_>
    <_>
      <internalNodes>
        0 -1 221688 -1640787280 1483508462 1526650496 1454751359 -267536
        -1896382729 -168232994 -69712856</internalNodes>
      <leafValues>
        -5.2945816516876221e-01 6.2641954421997070e-01</leafValues></_>
    <_>
      <internalNodes>
        0 -1 201426 805442654 318981268 -1743759092 870223949 -805269077
        1284511145 -427783772 -2016335836</internalNodes>
      <leafValues>
        -6.5295326709747314e-01 4.8951491713523865e-01</leafValues></_></weakClassifiers></stage7>
</opencv_storage>
