<?xml version="1.0"?>
<opencv_storage>
<stage11>
  <maxWeakCount>8</maxWeakCount>
  <stageThreshold>-5.1473957300186157e-01</stageThreshold>
  <weakClassifiers>
    <_>
      <internalNodes>
        0 -1 178598 -1990636016 957492268 -989804370 280334340
        -970292818 1489504288 -2067363666 143166176</internalNodes>
      <leafValues>
        -6.1772853136062622e-01 5.0282484292984009e-01</leafValues></_>
    <_>
      <internalNodes>
        0 -1 150135 -765669057 2013692197 159399937 -1123974071 68578447
        642001421 707262920 554570697</internalNodes>
      <leafValues>
        -6.8058556318283081e-01 3.7886890769004822e-01</leafValues></_>
    <_>
      <internalNodes>
        0 -1 211226 1907544158 28361814 -1543052122 -1139834109
        1095417898 -520044544 1509950090 -579853775</internalNodes>
      <leafValues>
        -5.5075001716613770e-01 4.5708864927291870e-01</leafValues></_>
    <_>
      <internalNodes>
        0 -1 2539 -2144107873 334528528 4233 -1050574832 554697295 53387
        8479241 -705693157</internalNodes>
      <leafValues>
        -4.9694302678108215e-01 5.3152960538864136e-01</leafValues></_>
    <_>
      <internalNodes>
        0 -1 179090 121715423 -2145124210 -532674560 999930587
        1749093275 -610598209 85989771 -901199228</internalNodes>
      <leafValues>
        -5.7130289077758789e-01 4.6215990185737610e-01</leafValues></_>
    <_>
      <internalNodes>
        0 -1 125140 -780555937 -1870556662 -2139045493 1241776257
        -1073688434 -133685120 2122849246 1562444363</internalNodes>
      <leafValues>
        -6.8766546249389648e-01 3.7965616583824158e-01</leafValues></_>
    <_>
      <internalNodes>
        0 -1 194129 1128949056 1563444160 -1255997238 -1147617267
        403847169 578916520 1476528090 -574965013</internalNodes>
      <leafValues>
        -5.4509919881820679e-01 5.1876360177993774e-01</leafValues></_>
    <_>
      <internalNodes>
        0 -1 193641 -529859301 49176360 -453166042 932129634 1065285503
        2112752781 920559100 -426256785</internalNodes>
      <leafValues>
        -5.2775228023529053e-01 5.5604672431945801e-01</leafValues></_></weakClassifiers></stage11>
</opencv_storage>
