<?xml version="1.0"?>
<opencv_storage>
<stage9>
  <maxWeakCount>6</maxWeakCount>
  <stageThreshold>-1.0553029775619507e+00</stageThreshold>
  <weakClassifiers>
    <_>
      <internalNodes>
        0 -1 147398 854821105 -249118463 138510992 -2145845247
        -1741946523 160975104 -1893332704 33333648</internalNodes>
      <leafValues>
        -7.0121949911117554e-01 4.9528300762176514e-01</leafValues></_>
    <_>
      <internalNodes>
        0 -1 203704 -783157362 -1315987424 71643136 612769994 1879098256
        773914689 422674462 696906143</internalNodes>
      <leafValues>
        -5.9392517805099487e-01 4.0815910696983337e-01</leafValues></_>
    <_>
      <internalNodes>
        0 -1 193651 343941338 1124645256 815010499 -595034011 1879450126
        950567101 285596067 -103810802</internalNodes>
      <leafValues>
        -5.5364125967025757e-01 4.9944666028022766e-01</leafValues></_>
    <_>
      <internalNodes>
        0 -1 190148 -67641971 -1615880709 -1342492939 -1078231049
        -1359000356 1828712444 -285249564 -1929379910</internalNodes>
      <leafValues>
        -4.3569830060005188e-01 6.0379272699356079e-01</leafValues></_>
    <_>
      <internalNodes>
        0 -1 220788 302908040 -723571675 -688252055 -637574032 511487131
        -1368054307 1059372458 -1334274818</internalNodes>
      <leafValues>
        -4.7275555133819580e-01 6.0556787252426147e-01</leafValues></_>
    <_>
      <internalNodes>
        0 -1 180220 420962775 -787332856 184619074 2100060160
        -1943895558 -1173612911 139100569 1478625313</internalNodes>
      <leafValues>
        -5.3405678272247314e-01 5.1615363359451294e-01</leafValues></_></weakClassifiers></stage9>
</opencv_storage>
