<?xml version="1.0"?>
<opencv_storage>
<stage6>
  <maxWeakCount>6</maxWeakCount>
  <stageThreshold>-3.0673065781593323e-01</stageThreshold>
  <weakClassifiers>
    <_>
      <internalNodes>
        0 -1 15 1441923007 2063433705 2147483646 -352321594 -621084737
        1733787583 -343277641 1887436119</internalNodes>
      <leafValues>
        -5.6126481294631958e-01 6.2522852420806885e-01</leafValues></_>
    <_>
      <internalNodes>
        0 -1 125796 -1714319106 -1790377726 -1072606975 1493270784
        -2147433830 -805272955 -1577019222 2080910</internalNodes>
      <leafValues>
        -6.0369163751602173e-01 4.8913580179214478e-01</leafValues></_>
    <_>
      <internalNodes>
        0 -1 177065 -2143150885 -263925630 285491609 -612361416
        1217953992 -1564343030 1346552290 -1427437174</internalNodes>
      <leafValues>
        -6.6505295038223267e-01 4.4673398137092590e-01</leafValues></_>
    <_>
      <internalNodes>
        0 -1 271036 1371624263 -1849311229 1611792585 -817159679
        -255488822 2113 -1874749282 1506656911</internalNodes>
      <leafValues>
        -5.8691573143005371e-01 5.1943147182464600e-01</leafValues></_>
    <_>
      <internalNodes>
        0 -1 179863 285334531 956563728 276861265 1498251521 570986905
        -66870646 134776971 -1918794236</internalNodes>
      <leafValues>
        -5.1313358545303345e-01 6.0280972719192505e-01</leafValues></_>
    <_>
      <internalNodes>
        0 -1 185859 -1140772500 -872414704 1342216477 -821018288
        297829352 -880672374 -1070448413 -850945536</internalNodes>
      <leafValues>
        -6.8763351440429688e-01 4.3164551258087158e-01</leafValues></_></weakClassifiers></stage6>
</opencv_storage>
